svm_type c_svc
kernel_type rbf
gamma 0.25
nr_class 3
total_sv 41
rho 0.0403676 0.150016 0.145781
label 1 2 3
nr_sv 5 18 18
SV
0.4391991853075293 0.9396332543599373 1:5.7 2:4.4 3:1.5 4:0.4 
0.06797126610719191 0 1:5.7 2:3.8 3:1.7 4:0.3 
0.3573640103364264 0.01919372928782033 1:4.8 2:3.4 3:1.9 4:0.2 
1 0.957496548714963 1:4.5 2:2.3 3:1.3 4:0.3 
0.4602648456746901 0 1:5.1 2:3.8 3:1.9 4:0.4 
-0.5319938153016558 0 1:7 2:3.2 3:4.7 4:1.4 
-0.1459404098846688 1 1:6.9 2:3.1 3:4.9 4:1.5 
-0 1 1:6.5 2:2.8 3:4.6 4:1.5 
-0 0.1787935770358291 1:5.7 2:2.8 3:4.5 4:1.3 
-0 1 1:6.3 2:3.3 3:4.7 4:1.6 
-0.5380885758570279 0 1:4.9 2:2.4 3:3.3 4:1 
-0 0.5158069264403423 1:5 2:2 3:3.5 4:1 
-0 1 1:6.1 2:2.9 3:4.7 4:1.4 
-0 1 1:6.2 2:2.2 3:4.5 4:1.5 
-0 1 1:5.9 2:3.2 3:4.8 4:1.8 
-0 1 1:6.3 2:2.5 3:4.9 4:1.5 
-0 1 1:6.8 2:2.8 3:4.8 4:1.4 
-0 1 1:6 2:2.9 3:4.5 4:1.5 
-0.1087765063824852 1 1:6 2:2.7 3:5.1 4:1.6 
-0 1 1:5.4 2:3 3:4.5 4:1.5 
-0 0.7277074211139573 1:6 2:3.4 3:4.5 4:1.6 
-0 1 1:6.7 2:3.1 3:4.7 4:1.5 
-1 0 1:5.1 2:2.5 3:3 4:1.1 
-0.1277921334467671 -0 1:6.3 2:3.3 3:6 4:2.5 
-0.7436905572576555 -1 1:4.9 2:2.5 3:4.5 4:1.7 
-0 -1 1:6.5 2:3.2 3:5.1 4:2 
-0.2029176929642935 -0 1:7.7 2:3.8 3:6.7 4:2.2 
-0.1010461557416266 -1 1:6 2:2.2 3:5 4:1.5 
-0 -1 1:5.6 2:2.8 3:4.9 4:2 
-0.3210217366917366 -0 1:7.7 2:2.8 3:6.7 4:2 
-0 -1 1:6.3 2:2.7 3:4.9 4:1.8 
-0 -1 1:6.2 2:2.8 3:4.8 4:1.8 
-0 -1 1:6.1 2:3 3:4.9 4:1.8 
-0.24842122117197 -0.3798393843647184 1:7.9 2:3.8 3:6.4 4:2 
-0 -1 1:6.3 2:2.8 3:5.1 4:1.5 
-0 -0.918842695792057 1:6.1 2:2.6 3:5.6 4:1.4 
-0.1714340350886712 -0.9309505651654183 1:6.9 2:3.1 3:5.1 4:2.3 
-0 -0.1926752792679353 1:5.8 2:2.7 3:5.1 4:1.9 
-0 -1 1:6.3 2:2.5 3:5 4:1.9 
-0 -1 1:6.5 2:3 3:5.2 4:2 
-0 -1 1:5.9 2:3 3:5.1 4:1.8 
